digraph Tree {
node [shape=box, style="filled, rounded", color="black", fontname=helvetica] ;
edge [fontname=helvetica] ;
0 [label="X[49] <= 0.333\ngini = 0.9\nsamples = 1200000\nvalue = [120000, 120000, 120000, 120000, 120000, 120000, 120000\n120000, 120000, 120000]", fillcolor="#e5813900"] ;
1 [label="X[41] <= 3.135\ngini = 0.668\nsamples = 360189\nvalue = [3, 23, 12, 2, 22, 119732, 28, 119885, 503, 119979]", fillcolor="#e5395800"] ;
0 -> 1 [labeldistance=2.5, labelangle=45, headlabel="True"] ;
5 [label="gini = 0.045\nsamples = 120969\nvalue = [0, 0, 0, 0, 0, 674, 0, 118182, 150, 1963]", fillcolor="#a339e5f9"] ;
1 -> 5 ;
6 [label="X[39] <= -0.979\ngini = 0.509\nsamples = 239220\nvalue = [3, 23, 12, 2, 22, 119058, 28, 1703, 353, 118016]", fillcolor="#399de502"] ;
1 -> 6 ;
7 [label="gini = 0.016\nsamples = 119594\nvalue = [0, 0, 0, 0, 0, 118657, 0, 408, 173, 356]", fillcolor="#399de5fd"] ;
6 -> 7 ;
8 [label="gini = 0.032\nsamples = 119626\nvalue = [3, 23, 12, 2, 22, 401, 28, 1295, 180, 117660]", fillcolor="#e53958fb"] ;
6 -> 8 ;
2 [label="X[39] <= -0.457\ngini = 0.857\nsamples = 839811\nvalue = [119997, 119977, 119988, 119998, 119978, 268, 119972, 115\n119497, 21]", fillcolor="#39e55e00"] ;
0 -> 2 [labeldistance=2.5, labelangle=-45, headlabel="False"] ;
3 [label="gini = 0.017\nsamples = 118484\nvalue = [295, 13, 41, 28, 91, 224, 189, 115, 117481, 7]", fillcolor="#e539c0fd"] ;
2 -> 3 ;
4 [label="X[32] <= 12.354\ngini = 0.834\nsamples = 721327\nvalue = [119702, 119964, 119947, 119970, 119887, 44, 119783, 0\n2016, 14]", fillcolor="#39e55e00"] ;
2 -> 4 ;
9 [label="X[13] <= -8.792\ngini = 0.76\nsamples = 453929\nvalue = [9181, 2429, 119087, 115949, 119482, 44, 86016, 0, 1727\n14]", fillcolor="#39e5c500"] ;
4 -> 9 ;
13 [label="X[10] <= 30.27\ngini = 0.322\nsamples = 138069\nvalue = [951, 1015, 1295, 111802, 20596, 0, 2116, 0, 294, 0]", fillcolor="#39e55ec6"] ;
9 -> 13 ;
21 [label="X[10] <= 22.227\ngini = 0.429\nsamples = 27040\nvalue = [51, 90, 886, 4799, 19796, 0, 1214, 0, 204, 0]", fillcolor="#39e5c5ac"] ;
13 -> 21 ;
22 [label="gini = 0.071\nsamples = 111029\nvalue = [900, 925, 409, 107003, 800, 0, 902, 0, 90, 0]", fillcolor="#39e55ef6"] ;
13 -> 22 ;
14 [label="X[10] <= 24.083\ngini = 0.691\nsamples = 315860\nvalue = [8230, 1414, 117792, 4147, 98886, 44, 83900, 0, 1433\n14]", fillcolor="#7be53916"] ;
9 -> 14 ;
15 [label="X[10] <= 22.781\ngini = 0.182\nsamples = 94927\nvalue = [44, 22, 5804, 168, 85580, 10, 3177, 0, 114, 8]", fillcolor="#39e5c5e4"] ;
14 -> 15 ;
16 [label="X[32] <= 5.229\ngini = 0.604\nsamples = 220933\nvalue = [8186, 1392, 111988, 3979, 13306, 34, 80723, 0, 1319\n6]", fillcolor="#7be53939"] ;
14 -> 16 ;
17 [label="X[10] <= 28.627\ngini = 0.217\nsamples = 117929\nvalue = [832, 57, 103963, 490, 7265, 0, 5017, 0, 305, 0]", fillcolor="#7be539df"] ;
16 -> 17 ;
18 [label="X[14] <= -10.863\ngini = 0.444\nsamples = 103004\nvalue = [7354, 1335, 8025, 3489, 6041, 34, 75706, 0, 1014, 6]", fillcolor="#3c39e5b6"] ;
16 -> 18 ;
10 [label="X[13] <= -8.019\ngini = 0.62\nsamples = 267398\nvalue = [110521, 117535, 860, 4021, 405, 0, 33767, 0, 289, 0]", fillcolor="#e2e5390b"] ;
4 -> 10 ;
11 [label="X[32] <= 16.404\ngini = 0.15\nsamples = 126659\nvalue = [5665, 116588, 278, 2313, 191, 0, 1557, 0, 67, 0]", fillcolor="#e2e539ea"] ;
10 -> 11 ;
23 [label="gini = 0.698\nsamples = 12000\nvalue = [5640, 2020, 278, 2268, 191, 0, 1536, 0, 67, 0]", fillcolor="#e5813958"] ;
11 -> 23 ;
24 [label="gini = 0.002\nsamples = 114659\nvalue = [25, 114568, 0, 45, 0, 0, 21, 0, 0, 0]", fillcolor="#e2e539ff"] ;
11 -> 24 ;
12 [label="X[14] <= -2.069\ngini = 0.392\nsamples = 140739\nvalue = [104856, 947, 582, 1708, 214, 0, 32210, 0, 222, 0]", fillcolor="#e58139ab"] ;
10 -> 12 ;
19 [label="X[32] <= 16.945\ngini = 0.46\nsamples = 40563\nvalue = [9780, 836, 399, 1092, 175, 0, 28119, 0, 162, 0]", fillcolor="#3c39e598"] ;
12 -> 19 ;
29 [label="gini = 0.642\nsamples = 12064\nvalue = [5351, 493, 300, 923, 130, 0, 4714, 0, 153, 0]", fillcolor="#e5813916"] ;
19 -> 29 ;
30 [label="gini = 0.301\nsamples = 28499\nvalue = [4429, 343, 99, 169, 45, 0, 23405, 0, 9, 0]", fillcolor="#3c39e5c9"] ;
19 -> 30 ;
20 [label="gini = 0.098\nsamples = 100176\nvalue = [95076, 111, 183, 616, 39, 0, 4091, 0, 60, 0]", fillcolor="#e58139f1"] ;
12 -> 20 ;
}